-1.698151975870132446e-01,-1.891142427921295166e-01,-6.455849856138229370e-02,-2.658486664295196533e-01,-2.814669907093048096e-01,-2.075073570013046265e-01,7.628101110458374023e-02,-2.139768600463867188e-01,4.488737136125564575e-02,-1.599144488573074341e-01,-1.958236545324325562e-01,-1.557610630989074707e-01,-9.425705671310424805e-02,-1.099886968731880188e-01,-1.485715955495834351e-01,2.075206674635410309e-02,-7.567631453275680542e-02,-2.859275639057159424e-01,-2.468619644641876221e-01,-2.915760576725006104e-01,-2.627868950366973877e-01,-3.278574943542480469e-01,-3.444231748580932617e-01,-4.821113944053649902e-01,-3.468124270439147949e-01,-3.832676410675048828e-01,-2.938761115074157715e-01,-8.258274197578430176e-02,-7.453811168670654297e-02,1.877548359334468842e-02,-3.547742366790771484e-01,-1.704458743333816528e-01,-9.201797842979431152e-02,-8.907563984394073486e-02,-5.221599340438842773e-02,-3.112729080021381378e-02,-3.257095068693161011e-02,-8.748511783778667450e-03,-1.181676834821701050e-01,-4.573806747794151306e-02,-2.173403948545455933e-01,-4.473136663436889648e-01,-9.270372241735458374e-02,-3.153381049633026123e-01,-3.766860961914062500e-01,-7.165995240211486816e-02,-1.341715157032012939e-01,-1.400013081729412079e-02,6.428814679384231567e-02,1.096648275852203369e-01,9.582644701004028320e-02,1.177900806069374084e-01,-9.180153720080852509e-03,4.509964585304260254e-02,-1.322685778141021729e-01,-6.864395737648010254e-01,-1.669843494892120361e-01,-1.475054025650024414e-01,-1.079243421554565430e-01,-1.555902063846588135e-01,-9.753113240003585815e-02,-1.377806346863508224e-02,1.370139326900243759e-02,4.138730466365814209e-02,1.556480377912521362e-01,2.674517631530761719e-01,9.796436131000518799e-02,-2.931125089526176453e-02,8.870828896760940552e-02,-7.309918403625488281e-01,-1.170621886849403381e-01,-1.146321594715118408e-01,-1.504476219415664673e-01,-2.284738793969154358e-02,-2.589557506144046783e-02,-7.910457253456115723e-02,4.035226628184318542e-02,-8.763384819030761719e-02,-6.529391556978225708e-02,1.946751326322555542e-01,1.629366725683212280e-01,1.396000385284423828e-01,7.638051360845565796e-02,-5.289065241813659668e-01,-8.885584026575088501e-02,-2.200349606573581696e-02,-1.278312355279922485e-01,1.528750061988830566e-01,4.130634292960166931e-02,-6.165027618408203125e-02,-6.277576088905334473e-02,-5.084971785545349121e-01,-6.190534830093383789e-01,-2.383852191269397736e-02,3.823461011052131653e-02,1.325920522212982178e-01,2.274289131164550781e-01,-2.491658627986907959e-01,-2.131284922361373901e-01,-2.454946935176849365e-01,-5.564222810789942741e-04,1.585052907466888428e-01,8.268634974956512451e-02,2.201174944639205933e-01,3.985049203038215637e-02,-7.384633421897888184e-01,-4.217418730258941650e-01,-1.876398622989654541e-01,-4.186544939875602722e-02,7.994236797094345093e-02,2.511208057403564453e-01,-4.010015428066253662e-01,-6.915506720542907715e-02,-2.777042090892791748e-01,-2.876236289739608765e-02,6.411894410848617554e-02,1.746887862682342529e-01,2.368445247411727905e-01,-1.725002378225326538e-01,-6.722357273101806641e-01,-2.149145454168319702e-01,-5.400469526648521423e-04,-9.709727019071578979e-03,2.373520098626613617e-02,2.724783495068550110e-02,-3.651585876941680908e-01,-1.301953047513961792e-01,-2.636672258377075195e-01,-2.603268250823020935e-03,4.948141053318977356e-02,8.608688414096832275e-02,2.454646378755569458e-01,-6.827144324779510498e-02,-2.270026803016662598e-01,-8.130864799022674561e-02,-2.140824683010578156e-02,-4.369504377245903015e-02,1.958337379619479179e-03,-9.397361427545547485e-02,-4.161148071289062500e-01,-6.372524052858352661e-02,-1.293453276157379150e-01,-3.071788512170314789e-02,-1.853813044726848602e-02,4.370508715510368347e-02,3.171393275260925293e-01,1.505871862173080444e-01,7.582477480173110962e-02,-5.913564562797546387e-02,-1.826925873756408691e-01,-9.995507448911666870e-02,4.897510260343551636e-02,-1.447003334760665894e-01,-3.027234375476837158e-01,-1.063030436635017395e-01,-1.502074897289276123e-01,-1.940347999334335327e-01,6.220513582229614258e-02,-3.400376811623573303e-02,1.694901883602142334e-01,2.337770462036132812e-01,2.318562716245651245e-01,1.132157742977142334e-01,1.452747359871864319e-02,-9.264743328094482422e-02,-8.880222588777542114e-02,-2.524167597293853760e-01,-6.047289445996284485e-02,-3.823374956846237183e-02,-1.321770101785659790e-01,-2.937296032905578613e-01,-1.541467756032943726e-01,-9.881108999252319336e-02,3.931528329849243164e-02,4.494269564747810364e-02,-2.418446354568004608e-02,-1.440058052539825439e-01,-2.975007593631744385e-01,-5.043491721153259277e-01,-4.200954139232635498e-01,-2.663195133209228516e-01,-1.545576155185699463e-01,-1.371236592531204224e-01,-1.420524204149842262e-03,-2.067365795373916626e-01,-3.798168003559112549e-01,-6.658009290695190430e-01,-8.355107307434082031e-01,-8.080874681472778320e-01,-7.146719098091125488e-01,-5.661570429801940918e-01,-5.376741886138916016e-01,-3.410135507583618164e-01,-2.240358144044876099e-01,-1.115233227610588074e-01,4.558832943439483643e-02
7.859139144420623779e-02,8.266333490610122681e-02,9.525660425424575806e-02,8.236409164965152740e-03,-2.880376065149903297e-03,-1.142768487334251404e-01,-9.806598722934722900e-02,1.248391047120094299e-01,-7.466419786214828491e-02,-1.357695162296295166e-01,-2.812354080379009247e-02,-9.827936440706253052e-02,-2.050542505457997322e-03,1.437959354370832443e-02,5.595338717103004456e-02,6.903441995382308960e-02,-8.621355146169662476e-02,-1.730168163776397705e-01,-2.431173175573348999e-01,-3.416526615619659424e-01,-2.814853787422180176e-01,1.459887176752090454e-01,4.546840488910675049e-02,-2.481551617383956909e-01,-2.276752144098281860e-01,-4.734272956848144531e-01,-3.166061341762542725e-01,-3.840353339910507202e-02,7.125936448574066162e-02,3.021138720214366913e-02,2.490228414535522461e-02,-2.554311417043209076e-02,-2.743768692016601562e-01,-2.245699614286422729e-01,-7.633531093597412109e-02,8.732803910970687866e-02,-5.991594865918159485e-02,-1.047973521053791046e-02,1.011308580636978149e-01,3.250128775835037231e-02,-1.173926964402198792e-01,-3.292746245861053467e-01,1.086826398968696594e-01,-1.793809831142425537e-01,-1.792449355125427246e-01,-2.229515314102172852e-01,-4.200250804424285889e-01,-2.551786899566650391e-01,-1.133112013339996338e-01,-1.199354305863380432e-01,-2.033071517944335938e-01,-7.597791403532028198e-02,1.011326070874929428e-02,-7.269933819770812988e-03,-1.349148452281951904e-01,-3.920661509037017822e-01,6.644032895565032959e-02,-1.848942935466766357e-01,-1.728608608245849609e-01,-3.405741751194000244e-01,-3.045927882194519043e-01,-2.617900371551513672e-01,-1.712455004453659058e-01,9.941267967224121094e-02,-3.087921254336833954e-02,-1.109808832406997681e-01,-1.108132377266883850e-01,-2.321233004331588745e-01,-5.574452280998229980e-01,-4.117611050605773926e-01,-1.308804843574762344e-03,-1.577815413475036621e-01,-2.199975699186325073e-01,-2.132811844348907471e-01,-1.844795197248458862e-01,-9.691490232944488525e-02,-1.573188453912734985e-01,4.294134080410003662e-01,1.880398988723754883e-01,-8.924493938684463501e-02,-1.464684456586837769e-01,-3.438423275947570801e-01,-7.585852146148681641e-01,-2.781165838241577148e-01,7.769697159528732300e-02,-4.530011489987373352e-02,-8.711386471986770630e-02,-1.403028219938278198e-01,-4.127592220902442932e-02,-3.376392722129821777e-01,-1.141300424933433533e-01,4.225688874721527100e-01,1.531496047973632812e-01,1.761798188090324402e-02,-1.625693440437316895e-01,-3.689683601260185242e-02,-4.335245490074157715e-01,-2.357889413833618164e-01,8.379534818232059479e-03,1.280642747879028320e-01,-6.944979727268218994e-02,-3.701599836349487305e-01,-9.041816741228103638e-02,-5.183513760566711426e-01,9.848971664905548096e-02,3.421554267406463623e-01,1.393602639436721802e-01,-2.900377511978149414e-01,-3.745558559894561768e-01,-2.838851213455200195e-01,-3.825549781322479248e-01,-4.663977324962615967e-01,4.862280189990997314e-02,-7.262269407510757446e-02,-3.413689434528350830e-01,-5.378875732421875000e-01,-1.344970911741256714e-01,-2.184937298297882080e-01,-6.673670560121536255e-02,4.331485927104949951e-01,-4.713192582130432129e-02,-4.768243134021759033e-01,-2.465410083532333374e-01,-1.339199393987655640e-01,-1.787469536066055298e-01,-1.281469762325286865e-01,8.691391348838806152e-02,-2.568965852260589600e-01,-7.124192714691162109e-01,-5.281697511672973633e-01,-1.643624305725097656e-01,-2.305551469326019287e-01,-1.222229283303022385e-02,1.304421126842498779e-01,-1.879172772169113159e-01,-9.366323053836822510e-02,-1.225923188030719757e-02,-9.646777808666229248e-02,2.653225697576999664e-02,1.164237558841705322e-01,8.543040603399276733e-02,-1.609064340591430664e-01,-1.593557596206665039e-01,2.135675586760044098e-02,-1.717363484203815460e-02,-6.656741723418235779e-03,-1.411812007427215576e-01,-1.372756212949752808e-01,-3.404078632593154907e-02,1.129108592867851257e-01,1.266203820705413818e-01,-3.043053206056356430e-03,5.346977338194847107e-02,-1.155750155448913574e-01,1.716852486133575439e-01,-1.489763706922531128e-02,2.533680200576782227e-01,1.714746654033660889e-01,9.184910356998443604e-02,-4.562664404511451721e-02,-2.559920847415924072e-01,-2.439231052994728088e-02,1.923841685056686401e-01,2.185174077749252319e-01,3.974743559956550598e-02,-2.010554969310760498e-01,-2.724784240126609802e-02,8.504774421453475952e-02,4.182801768183708191e-02,-1.211826801300048828e-01,-1.140593737363815308e-01,-1.666186302900314331e-01,-2.520747482776641846e-01,-1.889911442995071411e-01,-1.549164205789566040e-01,-2.342105060815811157e-01,-1.842788010835647583e-01,-1.060738712549209595e-01,-1.370313167572021484e-01,-2.608170211315155029e-01,-1.834406554698944092e-01,3.205440193414688110e-02,3.372200578451156616e-02,-7.575704157352447510e-02,-3.248503208160400391e-01,-4.963994920253753662e-01,-5.399079322814941406e-01,-7.240710854530334473e-01,-6.296303868293762207e-01,-4.771513640880584717e-01,-5.859091877937316895e-01,-4.373815059661865234e-01,-3.625729382038116455e-01,-3.239404559135437012e-01,-7.182343304157257080e-02,2.707175351679325104e-02
1.292373239994049072e-01,1.312187989242374897e-03,4.074195865541696548e-03,-9.818481653928756714e-02,-7.252370566129684448e-02,-1.369494944810867310e-01,-3.829503953456878662e-01,-7.584977895021438599e-02,1.541383713483810425e-01,-1.807051897048950195e-01,-2.171629369258880615e-01,-2.059360593557357788e-01,6.330898404121398926e-02,4.297906998544931412e-03,-3.167424583807587624e-03,-1.035379320383071899e-01,-1.278306394815444946e-01,-2.018251270055770874e-01,2.218502387404441833e-02,-2.454759553074836731e-02,8.484537154436111450e-02,-7.506041973829269409e-02,-4.742824286222457886e-02,-2.320863306522369385e-01,-2.820772826671600342e-01,-3.346769511699676514e-01,5.134511366486549377e-02,4.719031602144241333e-02,1.216891035437583923e-02,-1.234327778220176697e-01,7.348026335239410400e-02,3.957530483603477478e-02,8.414898067712783813e-02,1.244789063930511475e-01,1.102301403880119324e-01,8.007142692804336548e-02,4.538713768124580383e-02,-5.081471428275108337e-02,-1.955179721117019653e-01,-2.547562718391418457e-01,-4.164739847183227539e-01,-1.983472108840942383e-01,-6.375451385974884033e-02,-2.159720808267593384e-01,1.414029896259307861e-01,8.315741270780563354e-02,4.479173943400382996e-02,-1.451459061354398727e-02,6.488257646560668945e-02,8.847577869892120361e-02,4.023861140012741089e-02,-1.991872303187847137e-02,-1.705748401582241058e-02,-1.101302206516265869e-01,-5.991396903991699219e-01,-4.529333114624023438e-01,-9.512931108474731445e-02,-2.100520068779587746e-03,1.279599666595458984e-01,4.290067031979560852e-02,7.254093885421752930e-02,1.142174154520034790e-01,4.096030443906784058e-02,7.678405940532684326e-02,-3.308057039976119995e-02,2.681936137378215790e-03,-4.298579692840576172e-02,-1.067076846957206726e-01,-5.975691080093383789e-01,-4.772327840328216553e-01,-6.480555236339569092e-02,5.172942578792572021e-02,3.383987769484519958e-02,-4.589771106839179993e-02,-1.355094611644744873e-01,-1.623563617467880249e-01,-2.896024882793426514e-01,-2.702366411685943604e-01,3.007854707539081573e-02,9.318187832832336426e-03,4.288319870829582214e-02,-1.078556701540946960e-01,-3.330672979354858398e-01,-2.391090095043182373e-01,2.527384459972381592e-02,-1.191455274820327759e-01,-3.202456235885620117e-01,-6.853132247924804688e-01,-5.148493051528930664e-01,-4.017334580421447754e-01,-4.826223254203796387e-01,-3.478562533855438232e-01,-3.168750107288360596e-01,-1.077658459544181824e-01,-8.308467455208301544e-03,-1.513214409351348877e-01,-1.453505307435989380e-01,3.821048736572265625e-01,-6.756144016981124878e-02,2.218509837985038757e-02,-1.178682148456573486e-01,-8.516307920217514038e-02,-8.556226640939712524e-02,-1.101659494452178478e-03,4.785994812846183777e-02,-9.263604134321212769e-02,-1.965316385030746460e-01,-1.372974365949630737e-01,-1.931139081716537476e-01,-2.878069281578063965e-01,2.457348257303237915e-02,4.927456974983215332e-01,6.707824021577835083e-02,-1.257422752678394318e-02,2.070388644933700562e-01,1.788821220397949219e-01,7.937459647655487061e-02,1.118938773870468140e-01,2.533220350742340088e-01,1.346633583307266235e-01,-3.176042437553405762e-02,-8.772367238998413086e-02,-9.827565401792526245e-02,-1.123569905757904053e-01,1.529973447322845459e-01,5.748837590217590332e-01,4.858798161149024963e-02,-7.621702551841735840e-02,2.545284032821655273e-01,1.384797096252441406e-01,1.308963745832443237e-01,1.913428306579589844e-01,2.494261115789413452e-01,1.767923235893249512e-01,5.056235939264297485e-02,3.634369000792503357e-02,-2.190764248371124268e-02,6.998756527900695801e-02,1.994469612836837769e-01,4.138521254062652588e-01,8.670520037412643433e-02,4.516258090734481812e-02,9.903977066278457642e-02,1.494394540786743164e-01,1.853758543729782104e-01,1.324613690376281738e-01,1.693707704544067383e-01,1.322681456804275513e-01,1.222867444157600403e-01,1.385413408279418945e-01,1.352465599775314331e-01,1.366303712129592896e-01,1.010518744587898254e-01,3.118597865104675293e-01,4.137673974037170410e-02,1.454856097698211670e-01,1.063699275255203247e-01,1.475048512220382690e-01,1.448261141777038574e-01,4.328737035393714905e-02,-4.892773553729057312e-02,-7.694716006517410278e-02,-1.536215469241142273e-02,1.350439041852951050e-01,1.765541881322860718e-01,1.126470789313316345e-01,1.104539558291435242e-01,2.595078840386122465e-04,-4.572203010320663452e-02,-3.234783709049224854e-01,-3.613103628158569336e-01,-3.266475498676300049e-01,-2.324993312358856201e-01,-1.916656792163848877e-01,-6.319977343082427979e-02,-1.236593797802925110e-01,-9.658602625131607056e-02,-6.749663501977920532e-02,-1.562793180346488953e-02,-7.216431200504302979e-02,1.854635924100875854e-01,9.878215193748474121e-02,4.706829041242599487e-02,-6.518719345331192017e-02,-4.075757861137390137e-01,-3.798198699951171875e-01,-6.734111905097961426e-01,-7.512283325195312500e-01,-5.835373401641845703e-01,-4.143757522106170654e-01,-4.487510323524475098e-01,-4.016946256160736084e-01,-3.705383241176605225e-01,-2.688452005386352539e-01,-1.183441951870918274e-01,-3.214806318283081055e-02
-4.000798240303993225e-02,-7.517596334218978882e-02,-1.665566302835941315e-02,-8.585287630558013916e-02,-1.817157119512557983e-01,-2.634081840515136719e-01,-9.457188099622726440e-02,-1.516824662685394287e-01,-1.498199105262756348e-01,-3.729579448699951172e-01,-1.694469302892684937e-01,-1.930319368839263916e-01,-9.838183969259262085e-02,3.203087300062179565e-02,1.003971546888351440e-01,-9.710415452718734741e-02,-4.041992127895355225e-02,-7.821748033165931702e-03,-3.198154270648956299e-01,-1.571461707353591919e-01,8.937788009643554688e-02,3.762108087539672852e-02,2.360485680401325226e-02,3.230781853199005127e-02,5.700451880693435669e-02,-2.524000704288482666e-01,-3.087007999420166016e-01,-1.664104014635086060e-01,3.072915598750114441e-02,7.865959778428077698e-03,2.746388614177703857e-01,2.205998599529266357e-01,1.646892726421356201e-01,1.592524945735931396e-01,4.811994731426239014e-02,1.743375323712825775e-02,4.879279434680938721e-02,-1.674231141805648804e-03,-1.371238976716995239e-01,-2.476658076047897339e-01,-4.029384255409240723e-01,-3.964521288871765137e-01,2.241067960858345032e-02,6.984711438417434692e-02,2.218412905931472778e-01,8.539882302284240723e-02,3.764306753873825073e-02,3.778441622853279114e-02,1.149402931332588196e-01,1.378997713327407837e-01,5.648807436227798462e-02,2.559694275259971619e-02,-5.955148860812187195e-02,-1.984760761260986328e-01,-2.920645773410797119e-01,-4.378293454647064209e-01,-8.622530847787857056e-02,2.473797649145126343e-02,1.368002891540527344e-01,6.559570878744125366e-02,3.730781748890876770e-02,-5.242876335978507996e-02,-8.816988766193389893e-02,2.057227939367294312e-01,2.083042860031127930e-01,1.242854669690132141e-01,1.459853053092956543e-01,7.352811843156814575e-02,-5.939668416976928711e-01,-4.107616841793060303e-01,-9.423495829105377197e-02,1.644289195537567139e-01,7.609552890062332153e-02,-7.196421176195144653e-02,-2.684369385242462158e-01,-4.020767807960510254e-01,-2.535485029220581055e-01,1.495360285043716431e-01,1.725922673940658569e-01,2.188303917646408081e-01,2.301090061664581299e-01,1.126046329736709595e-01,-5.086182355880737305e-01,-3.782765567302703857e-01,-1.586636155843734741e-01,-8.535729348659515381e-02,-2.260212153196334839e-01,-3.674755692481994629e-01,-2.355495989322662354e-01,-1.152396723628044128e-01,1.517416967544704676e-05,1.022240296006202698e-01,-3.725435119122266769e-03,3.998387604951858521e-02,-1.127187833189964294e-01,-5.073176622390747070e-01,-2.664555311203002930e-01,-1.053429022431373596e-01,-7.794590294361114502e-02,2.456059912219643593e-03,-2.242383062839508057e-01,-3.638471662998199463e-01,-2.171309739351272583e-01,-1.260348558425903320e-01,3.950269147753715515e-02,5.341542139649391174e-02,-3.510522097349166870e-02,-2.580357529222965240e-02,-1.453342437744140625e-01,-3.124933242797851562e-01,-4.621474072337150574e-02,-3.881777822971343994e-01,4.251943528652191162e-02,1.480542570352554321e-01,1.537416577339172363e-01,-1.536897718906402588e-01,-2.720895111560821533e-01,-2.554043829441070557e-01,-1.208102330565452576e-01,-1.805395185947418213e-01,-1.851941198110580444e-01,8.490803837776184082e-02,1.290571093559265137e-01,2.474122494459152222e-01,1.354760676622390747e-01,-6.517981886863708496e-01,5.793626978993415833e-02,2.501474916934967041e-01,2.209056466817855835e-01,-2.908555231988430023e-02,-2.466017752885818481e-01,-4.138053357601165771e-01,-4.754348695278167725e-01,-2.526651322841644287e-01,1.300646364688873291e-01,1.451623588800430298e-01,1.199537068605422974e-01,1.466486155986785889e-01,-1.367450058460235596e-01,-6.002793908119201660e-01,-5.280316807329654694e-03,2.041085064411163330e-01,2.873103022575378418e-01,1.615085154771804810e-01,1.118117049336433411e-01,-9.652163833379745483e-02,-1.746383160352706909e-01,7.316533941775560379e-03,8.786207437515258789e-02,9.305410832166671753e-02,1.708657592535018921e-01,2.961565181612968445e-02,-6.508066505193710327e-02,-3.779593408107757568e-01,6.505620479583740234e-02,2.452498674392700195e-01,5.174984410405158997e-02,9.903459995985031128e-02,6.577350199222564697e-02,1.321214288473129272e-01,-4.181770235300064087e-02,-6.008025258779525757e-02,2.295173890888690948e-02,6.551503390073776245e-02,-3.613787516951560974e-02,-1.202163919806480408e-01,-3.260843157768249512e-01,-4.208396971225738525e-01,-2.107106614857912064e-03,2.766590714454650879e-01,2.034913003444671631e-01,1.937669515609741211e-01,6.998022645711898804e-02,1.100086197257041931e-01,1.876100450754165649e-01,7.051838934421539307e-02,1.482488866895437241e-02,-6.203022226691246033e-02,-1.034621372818946838e-01,-5.125969275832176208e-02,-4.356872439384460449e-01,-1.677087396383285522e-01,6.960932910442352295e-02,-1.055152714252471924e-01,-1.833344697952270508e-01,5.626351386308670044e-02,2.183059751987457275e-01,2.125254273414611816e-01,2.776912152767181396e-01,-1.958684809505939484e-02,-4.995179921388626099e-02,4.311943799257278442e-02,-3.422364220023155212e-02,-6.992567330598831177e-02,-9.858100116252899170e-02,7.169120945036411285e-03
-8.994629234075546265e-02,1.403736770153045654e-01,1.223950013518333435e-01,-9.117522835731506348e-02,-2.598834931850433350e-01,-1.972080320119857788e-01,-4.051922857761383057e-01,-1.735139340162277222e-01,-2.152813524007797241e-01,-3.604549765586853027e-01,-1.826991736888885498e-01,-2.603290677070617676e-01,5.745030939579010010e-02,3.229151293635368347e-02,-9.783621132373809814e-02,-8.302172273397445679e-02,-2.934248745441436768e-02,-3.092924952507019043e-01,-5.486877560615539551e-01,-7.416285276412963867e-01,-7.160724997520446777e-01,-5.462297797203063965e-01,-5.243651866912841797e-01,-3.756341934204101562e-01,-1.573351770639419556e-01,-1.696038544178009033e-01,-7.531713694334030151e-02,-1.917333155870437622e-01,-3.279719129204750061e-02,-1.916304081678390503e-01,1.609082520008087158e-01,-5.336649715900421143e-02,-1.498812884092330933e-01,-1.293628215789794922e-01,-1.609959602355957031e-01,6.366137880831956863e-03,-7.212489377707242966e-03,4.788528010249137878e-02,1.290832906961441040e-01,6.333275139331817627e-02,1.001676172018051147e-01,-2.863887250423431396e-01,-2.847829088568687439e-02,-4.233483374118804932e-01,1.132581532001495361e-01,2.171076387166976929e-01,1.278612464666366577e-01,3.027656115591526031e-02,-1.191720515489578247e-01,-1.909662485122680664e-01,-1.765562742948532104e-01,-1.599170453846454620e-02,3.152377437800168991e-03,2.101632058620452881e-01,1.873264610767364502e-01,7.899931073188781738e-02,-8.265107125043869019e-02,-2.064209431409835815e-01,-4.530120268464088440e-02,-1.920405402779579163e-02,2.511600614525377750e-04,-3.605530411005020142e-02,-1.140991076827049255e-01,-3.587855696678161621e-01,-2.059278935194015503e-01,6.809741025790572166e-04,1.253238320350646973e-02,-1.280780415982007980e-03,-6.217538192868232727e-02,-2.374380454421043396e-02,-1.770222336053848267e-01,-4.254803955554962158e-01,-1.801468729972839355e-01,-9.914172440767288208e-02,1.012145504355430603e-01,1.566793024539947510e-01,2.219167947769165039e-01,-4.942330121994018555e-01,1.720473021268844604e-01,7.289944682270288467e-03,-4.262213408946990967e-02,-1.088800579309463501e-01,-3.819808363914489746e-01,-3.655044734477996826e-01,-1.964671164751052856e-01,-5.000834465026855469e-01,-1.109308823943138123e-01,1.656891107559204102e-01,1.863296926021575928e-01,3.142381310462951660e-01,2.947530746459960938e-01,-2.454102635383605957e-01,1.810854077339172363e-01,7.162508368492126465e-02,6.223725527524948120e-02,1.013680081814527512e-02,-3.559135794639587402e-01,-2.645236551761627197e-01,-6.652410328388214111e-02,-1.621427983045578003e-01,9.244473651051521301e-03,2.003384977579116821e-01,1.545361727476119995e-01,2.920381724834442139e-01,1.874759793281555176e-01,-3.056641668081283569e-02,2.668595612049102783e-01,2.669043242931365967e-01,2.287787497043609619e-01,5.989931151270866394e-02,-1.999500393867492676e-01,-3.039646446704864502e-01,-3.355153650045394897e-02,-2.080003172159194946e-01,-1.762652397155761719e-01,3.080356121063232422e-02,1.225885823369026184e-01,-1.574736088514328003e-02,8.174690604209899902e-02,2.759244740009307861e-01,3.504121899604797363e-01,1.336801797151565552e-01,8.004168421030044556e-02,6.200309842824935913e-03,-2.440987676382064819e-01,-1.506655216217041016e-01,-6.834822893142700195e-02,-9.655410796403884888e-02,-3.141303658485412598e-01,-1.844370514154434204e-01,-1.347730159759521484e-01,-3.116105198860168457e-01,-5.571995675563812256e-02,1.054573059082031250e-01,3.569545969367027283e-02,-1.254429072141647339e-01,-1.048316210508346558e-01,-2.193263173103332520e-01,-4.647901356220245361e-01,-3.349705040454864502e-01,3.192574530839920044e-02,-1.587827950716018677e-01,-3.138799667358398438e-01,-4.477047920227050781e-01,-4.641488492488861084e-01,-4.026166796684265137e-01,-3.420667648315429688e-01,-1.421080976724624634e-01,-7.717744261026382446e-02,-2.000934481620788574e-01,-2.173018455505371094e-01,-2.862213253974914551e-01,-1.925921738147735596e-01,-2.951629757881164551e-01,-9.492281824350357056e-02,-2.194958627223968506e-01,-5.220357179641723633e-01,-3.200445473194122314e-01,-1.931094974279403687e-01,-1.486984342336654663e-01,-2.145822346210479736e-01,-1.630022376775741577e-01,-4.836596176028251648e-02,9.287940338253974915e-03,1.153214946389198303e-01,2.992006950080394745e-02,-1.196144744753837585e-01,-1.578004956245422363e-01,1.241840235888957977e-02,-1.713139712810516357e-01,-4.553483426570892334e-01,-1.108111143112182617e-01,-1.351040303707122803e-01,-8.150743693113327026e-02,-1.468661427497863770e-01,-1.630259156227111816e-01,-1.541366428136825562e-01,-1.481778621673583984e-01,-1.471924632787704468e-01,-1.453692913055419922e-01,-2.667810618877410889e-01,-1.974721252918243408e-01,-6.623875349760055542e-03,2.828818187117576599e-02,1.576060079969465733e-03,-2.629447877407073975e-01,-6.958031654357910156e-01,-5.861453413963317871e-01,-6.913661360740661621e-01,-7.274761199951171875e-01,-8.476867675781250000e-01,-7.016752958297729492e-01,-6.926476955413818359e-01,-3.382051885128021240e-01,-2.253830432891845703e-01,-8.996684849262237549e-02
7.240229249000549316e-01,1.427996754646301270e-01,7.154639065265655518e-02,6.008907780051231384e-02,-1.174178943037986755e-01,-7.714369893074035645e-02,-1.890742778778076172e-01,-2.039193212985992432e-01,-2.288743108510971069e-02,-3.851684629917144775e-01,-1.613975316286087036e-01,-2.320568263530731201e-01,-4.105134680867195129e-02,1.565933525562286377e-01,1.602650731801986694e-01,-1.287755221128463745e-01,-1.070289313793182373e-01,-2.617000341415405273e-01,-2.530907690525054932e-01,-3.159342706203460693e-01,-5.281797647476196289e-01,-3.406399786472320557e-01,-1.161597073078155518e-01,1.923146285116672516e-02,-1.205814909189939499e-02,1.317494362592697144e-01,-1.334495097398757935e-01,2.598191611468791962e-02,2.003282457590103149e-01,-5.739199742674827576e-02,-4.990792572498321533e-01,-2.909415960311889648e-01,-2.365921437740325928e-01,-5.241669341921806335e-02,-2.141403108835220337e-01,-1.585862934589385986e-01,-2.969817444682121277e-02,1.466864813119173050e-02,2.829158306121826172e-02,-3.231818601489067078e-02,1.677896976470947266e-01,1.675035059452056885e-01,9.056720137596130371e-02,-3.362784087657928467e-01,-3.972751796245574951e-01,-2.676232159137725830e-01,-6.672394275665283203e-02,1.215774845331907272e-02,4.945103079080581665e-03,-9.400641173124313354e-02,-7.299349457025527954e-02,1.188601031899452209e-01,1.359067708253860474e-01,9.708005189895629883e-02,1.531583666801452637e-01,1.267990171909332275e-01,-1.675727032124996185e-02,-4.776528775691986084e-01,-5.914486050605773926e-01,-1.879766434431076050e-01,5.072655156254768372e-02,4.140033200383186340e-02,4.477680474519729614e-02,-1.428379565477371216e-01,-2.669447064399719238e-01,-6.339289993047714233e-02,8.810545504093170166e-02,2.003723382949829102e-01,6.006090641021728516e-01,3.434391617774963379e-01,4.938962683081626892e-02,-5.592566132545471191e-01,-1.966453194618225098e-01,1.440644729882478714e-03,8.946802467107772827e-02,1.205008625984191895e-01,1.694895923137664795e-01,-1.074058860540390015e-01,-2.542708218097686768e-01,-2.630986571311950684e-01,-2.685455977916717529e-01,-7.259926944971084595e-02,6.525537371635437012e-01,6.371766924858093262e-01,1.092055812478065491e-01,-3.203067779541015625e-01,-8.662818372249603271e-02,1.475550383329391479e-01,2.862752648070454597e-03,1.171654835343360901e-01,2.819798588752746582e-01,2.925456315279006958e-02,-2.727643549442291260e-01,-2.590349614620208740e-01,-3.530746102333068848e-01,-8.262946009635925293e-01,-7.083156704902648926e-01,3.694708272814750671e-02,2.721174657344818115e-01,-2.882945835590362549e-01,-1.540548652410507202e-01,-2.431975752115249634e-01,-8.471237868070602417e-02,1.193759590387344360e-01,1.408619731664657593e-01,-1.492308676242828369e-01,-2.758214175701141357e-01,-1.321822404861450195e-01,-7.373414002358913422e-03,-1.327787935733795166e-01,-1.474695056676864624e-01,-5.640525817871093750e-01,1.889035254716873169e-01,-2.655477523803710938e-01,-1.737316697835922241e-01,-2.059651762247085571e-01,-3.077901899814605713e-01,-2.127984911203384399e-01,-2.107443064451217651e-01,-2.162758260965347290e-01,-1.428734362125396729e-01,3.765248227864503860e-03,-6.150217726826667786e-03,1.363642700016498566e-02,7.443979382514953613e-02,-6.307101249694824219e-01,1.425524055957794189e-01,2.527843927964568138e-03,1.791073679924011230e-01,1.620674431324005127e-01,-1.387422084808349609e-01,-3.232307732105255127e-01,-1.751619726419448853e-01,-2.985704503953456879e-02,4.286596179008483887e-02,3.449433296918869019e-02,2.157219499349594116e-02,6.472648680210113525e-02,4.157816618680953979e-02,-3.551786541938781738e-01,1.972021162509918213e-01,-4.471536353230476379e-02,1.056593805551528931e-01,1.374980062246322632e-01,2.858152687549591064e-01,1.401582658290863037e-01,3.714363649487495422e-02,5.502802506089210510e-02,2.302965149283409119e-02,4.356814548373222351e-02,6.151698157191276550e-02,2.332148998975753784e-01,1.427586376667022705e-01,-5.541026964783668518e-02,1.571162641048431396e-01,-2.714390158653259277e-01,-2.140713669359683990e-02,-1.857257187366485596e-01,-5.183089897036552429e-02,1.344601809978485107e-01,9.334191679954528809e-02,1.038302704691886902e-01,1.440229266881942749e-01,4.739991575479507446e-02,5.445664748549461365e-02,1.089828088879585266e-01,7.181105762720108032e-02,8.242780715227127075e-02,1.386967301368713379e-01,-1.796034979633986950e-03,1.068484038114547729e-02,-9.036927670240402222e-02,-2.450656518340110779e-02,-7.407292257994413376e-03,1.308673322200775146e-01,7.287651300430297852e-02,3.910886123776435852e-02,1.659507490694522858e-02,4.317841678857803345e-02,1.574498601257801056e-02,1.077073812484741211e-01,-1.183926835656166077e-01,1.650971621274948120e-01,6.321965157985687256e-02,-1.931248009204864502e-01,-3.942121267318725586e-01,-3.088213801383972168e-01,2.686502784490585327e-02,2.139496803283691406e-02,-6.537466496229171753e-02,1.323406994342803955e-01,-1.306871622800827026e-01,3.088752366602420807e-02,2.336789965629577637e-01,6.928632408380508423e-02,-1.499749347567558289e-02
-2.976211011409759521e-01,-9.379842132329940796e-02,-1.266022920608520508e-01,-7.811249699443578720e-03,2.112649977207183838e-01,2.780827581882476807e-01,3.119933307170867920e-01,-4.931602999567985535e-02,-1.374499052762985229e-01,2.201448082923889160e-01,1.315221488475799561e-01,1.202661395072937012e-01,-7.344014197587966919e-02,-1.289954632520675659e-01,-1.800031512975692749e-01,1.183070242404937744e-02,4.222956672310829163e-02,3.466036021709442139e-01,4.126054942607879639e-01,3.838592469692230225e-01,3.045695722103118896e-01,2.887285947799682617e-01,1.999260634183883667e-01,2.677976787090301514e-01,2.309831231832504272e-01,3.649834096431732178e-01,1.991988271474838257e-01,-4.007875174283981323e-02,-1.699463874101638794e-01,-1.338063776493072510e-01,5.544875189661979675e-02,3.642032667994499207e-02,1.525222361087799072e-01,9.420390427112579346e-02,-1.595816947519779205e-02,1.008079349994659424e-01,9.500600397586822510e-02,2.812488079071044922e-01,3.173333108425140381e-01,2.579267919063568115e-01,1.923526227474212646e-01,-1.016052067279815674e-01,-1.017917916178703308e-01,-2.954468727111816406e-01,-7.228907197713851929e-02,-7.866870611906051636e-02,-1.936218328773975372e-02,-9.428972750902175903e-02,-2.277258969843387604e-02,-7.212145626544952393e-02,-2.815167186781764030e-03,-9.852202981710433960e-02,7.622848264873027802e-03,6.130756065249443054e-02,1.429120451211929321e-01,2.275526337325572968e-02,-2.293920367956161499e-01,-2.706320583820343018e-01,-6.059506535530090332e-02,-4.990857467055320740e-02,2.391233108937740326e-02,-3.938047215342521667e-02,-1.127244159579277039e-01,-6.895145028829574585e-02,-2.653016149997711182e-01,-3.166351318359375000e-01,-2.266746908426284790e-01,-2.236455380916595459e-01,-4.095286130905151367e-01,-2.763698101043701172e-01,-1.253821104764938354e-01,-3.127409815788269043e-01,-2.250909507274627686e-01,-4.848174750804901123e-02,1.160294469445943832e-02,2.524578943848609924e-02,8.275879919528961182e-02,-2.065687179565429688e-01,-3.200901746749877930e-01,-2.742437720298767090e-01,-1.794008761644363403e-01,-1.480284333229064941e-01,-1.244304105639457703e-01,-4.775274097919464111e-01,-1.804411560297012329e-01,-1.763429194688796997e-01,-9.357056766748428345e-02,2.396909892559051514e-01,1.001929193735122681e-01,9.782676398754119873e-02,1.830001473426818848e-01,-1.880300492048263550e-01,-1.040322482585906982e-01,-1.864836066961288452e-01,-6.718319654464721680e-02,1.876083612442016602e-01,2.774639129638671875e-01,-4.853337705135345459e-01,-2.038389146327972412e-01,-2.214889377355575562e-01,-1.887363195419311523e-01,1.286960393190383911e-01,8.177613466978073120e-02,2.535943090915679932e-01,1.215927228331565857e-01,6.557445973157882690e-02,1.473410427570343018e-02,-1.925347298383712769e-01,-2.487811446189880371e-02,9.846211224794387817e-02,1.526404768228530884e-01,-2.922957837581634521e-01,-1.713775843381881714e-01,-2.724666893482208252e-01,-4.489180445671081543e-01,-2.170357853174209595e-02,1.521681398153305054e-01,3.012323081493377686e-01,1.592180728912353516e-01,4.123119264841079712e-02,-1.339529007673263550e-01,-1.167192868888378143e-02,-7.014442235231399536e-02,-1.557999998331069946e-01,-1.404890976846218109e-02,-3.883677423000335693e-01,-1.904318034648895264e-01,-2.514614760875701904e-01,-5.045471787452697754e-01,-1.735514998435974121e-01,4.409231245517730713e-02,1.768048405647277832e-01,2.159103006124496460e-01,4.492327570915222168e-03,3.450713993515819311e-04,-1.193009782582521439e-02,-1.050564721226692200e-01,-4.619906470179557800e-02,-1.490586102008819580e-01,-2.043112218379974365e-01,-1.433378756046295166e-01,-3.957135081291198730e-01,-4.121882915496826172e-01,-4.427493512630462646e-01,-2.538751959800720215e-01,7.993366569280624390e-02,2.505653798580169678e-01,2.989261746406555176e-01,1.853466778993606567e-01,1.033571511507034302e-01,-2.058874256908893585e-02,-1.499800086021423340e-01,-2.587317526340484619e-01,-2.621682286262512207e-01,-1.177580654621124268e-01,-2.222696989774703979e-01,-5.242756009101867676e-01,-5.195153355598449707e-01,-1.607984751462936401e-01,-2.338854521512985229e-01,-9.986551851034164429e-02,-2.796727418899536133e-02,-3.066905960440635681e-02,-5.489632859826087952e-02,-1.081653609871864319e-01,-3.078594207763671875e-01,-4.392853677272796631e-01,-6.125970184803009033e-02,-1.524170339107513428e-01,2.300634421408176422e-02,-2.792102098464965820e-01,-7.359485626220703125e-01,-5.880212783813476562e-01,-6.308483481407165527e-01,-5.991081595420837402e-01,-3.759560286998748779e-01,-3.139589428901672363e-01,-2.987640202045440674e-01,-4.024752378463745117e-01,-4.090404510498046875e-01,-3.391932845115661621e-01,-5.998407676815986633e-02,-1.706659793853759766e-01,-5.213839001953601837e-03,-8.305982500314712524e-02,-6.758807599544525146e-02,-1.912493407726287842e-01,-2.928620576858520508e-01,-2.578160464763641357e-01,-5.378628969192504883e-01,-4.324167966842651367e-01,-5.246171951293945312e-01,-3.207084834575653076e-01,-2.856259644031524658e-01,-1.175247952342033386e-01,-6.684860587120056152e-02
1.684418022632598877e-01,-7.350569963455200195e-02,5.887571722269058228e-03,-1.945799291133880615e-01,-1.264023482799530029e-01,-2.026966363191604614e-01,-2.391604483127593994e-01,-2.429709434509277344e-01,-1.210893541574478149e-01,-2.954855263233184814e-01,-2.040891647338867188e-01,-1.378273814916610718e-01,-6.806569546461105347e-02,-8.276821672916412354e-02,3.560637822374701500e-03,1.280932035297155380e-02,-6.947093456983566284e-02,-2.429011911153793335e-01,-3.580285906791687012e-01,-5.110817551612854004e-01,-5.805202722549438477e-01,-3.979627788066864014e-01,-3.916999101638793945e-01,-3.405541181564331055e-01,-2.641251981258392334e-01,-1.425205171108245850e-01,-1.150179505348205566e-01,-1.582602597773075104e-02,8.259200304746627808e-02,3.508675470948219299e-02,-2.096738815307617188e-01,-4.721278548240661621e-01,-3.720243573188781738e-01,-5.676872134208679199e-01,-4.740650355815887451e-01,-5.433499813079833984e-01,-5.945556759834289551e-01,-7.189268469810485840e-01,-8.273308873176574707e-01,-6.524724364280700684e-01,-5.288060903549194336e-01,-4.349908828735351562e-01,-1.706521958112716675e-02,3.124092519283294678e-01,1.113092061132192612e-03,5.918029323220252991e-02,8.838161826133728027e-02,7.697674445807933807e-03,-6.780366599559783936e-02,-1.998974382877349854e-01,-1.390207260847091675e-01,-1.180720999836921692e-01,-8.308611065149307251e-02,-1.931542307138442993e-01,-3.593384027481079102e-01,-5.356743931770324707e-01,1.463899463415145874e-01,2.254613190889358521e-01,1.919218897819519043e-01,1.389290839433670044e-01,8.322811871767044067e-02,1.081237494945526123e-01,1.402280181646347046e-01,8.775694668292999268e-02,2.063615769147872925e-01,9.449104964733123779e-02,-2.517967717722058296e-03,-8.182847499847412109e-02,-3.197941184043884277e-01,-3.576554656028747559e-01,3.065868616104125977e-01,3.629320859909057617e-01,1.819476485252380371e-01,-5.044269561767578125e-02,-6.004041433334350586e-02,-7.411446422338485718e-02,-2.131029404699802399e-02,2.674866318702697754e-01,4.515082240104675293e-01,2.662388086318969727e-01,8.901346474885940552e-02,1.532583497464656830e-02,-4.442652761936187744e-01,-1.364006549119949341e-01,2.262365818023681641e-01,4.306492805480957031e-01,1.738575100898742676e-01,3.759529069066047668e-02,-1.377380266785621643e-02,-7.701417058706283569e-02,-5.600799918174743652e-01,-2.075003832578659058e-01,2.309801429510116577e-01,1.182931438088417053e-01,4.504928365349769592e-02,-1.342669278383255005e-01,-3.407507836818695068e-01,-2.978456318378448486e-01,1.085109189152717590e-01,3.262822329998016357e-01,1.027975827455520630e-01,3.522997349500656128e-02,-1.308237761259078979e-02,-2.571726441383361816e-01,-8.991523981094360352e-01,-3.332496583461761475e-01,-2.511153230443596840e-03,2.917798161506652832e-01,1.488867998123168945e-01,1.025269925594329834e-01,-1.241684854030609131e-01,-3.061893582344055176e-01,-5.834586173295974731e-02,5.750824883580207825e-02,-7.036899216473102570e-03,2.020994760096073151e-02,-3.470087796449661255e-02,-2.978089749813079834e-01,-2.647465467453002930e-01,-2.293278649449348450e-02,2.446965128183364868e-02,2.492502480745315552e-01,2.698620855808258057e-01,3.830020874738693237e-02,-2.527436017990112305e-01,-2.524790465831756592e-01,1.044813469052314758e-01,-8.861486800014972687e-03,-6.398820877075195312e-02,-2.677905857563018799e-01,-3.163850605487823486e-01,-1.820620894432067871e-01,-3.650614619255065918e-02,6.988181173801422119e-02,-8.218757808208465576e-02,-1.252323389053344727e-01,-8.263938874006271362e-02,-2.185763716697692871e-01,-2.416552007198333740e-01,-1.604682803153991699e-01,-3.862522915005683899e-02,-3.293618857860565186e-01,-4.171781539916992188e-01,-3.310391008853912354e-01,-1.663898080587387085e-01,-1.026012450456619263e-01,-1.340199168771505356e-02,-3.585097193717956543e-02,-1.472705900669097900e-01,-2.715729176998138428e-01,-2.721568346023559570e-01,-4.517453014850616455e-01,-2.109407931566238403e-01,-1.486291289329528809e-01,6.655000150203704834e-02,-3.689387738704681396e-01,4.514269158244132996e-02,1.920951306819915771e-01,9.565900266170501709e-02,9.564348496496677399e-03,-5.643541738390922546e-02,2.354894019663333893e-02,-3.808145597577095032e-02,-2.350887060165405273e-01,-2.852047979831695557e-01,-4.631005227565765381e-01,-4.986216127872467041e-01,-1.826395690441131592e-01,-1.386113557964563370e-02,3.213121963199228048e-04,3.312568366527557373e-01,3.929359912872314453e-01,1.972346156835556030e-01,1.986511945724487305e-01,2.262940555810928345e-01,2.107332795858383179e-01,2.428654730319976807e-01,-2.458415925502777100e-02,-9.244798868894577026e-02,-1.727029234170913696e-01,-4.391612112522125244e-01,-1.373521685600280762e-01,5.286398902535438538e-02,2.880523540079593658e-02,-9.798378497362136841e-02,-8.474564552307128906e-02,1.493280678987503052e-01,1.141372993588447571e-01,1.316236406564712524e-01,1.758363693952560425e-01,2.755141258239746094e-01,2.899880707263946533e-01,1.418819576501846313e-01,1.840477585792541504e-01,-1.851463466882705688e-01,-4.775911197066307068e-02
-5.734466314315795898e-01,-4.048581421375274658e-02,-7.896578311920166016e-02,-7.518744468688964844e-02,-6.135971844196319580e-02,-2.839208245277404785e-01,-2.160445451736450195e-01,-2.020904421806335449e-01,-2.911416888236999512e-01,-3.847130239009857178e-01,-1.845627278089523315e-01,-3.041634261608123779e-01,-1.430255621671676636e-01,1.392587460577487946e-02,-1.004749685525894165e-01,-1.022229641675949097e-01,-7.010824978351593018e-02,-3.116859197616577148e-01,-4.187518656253814697e-01,-7.041729688644409180e-01,-6.822258234024047852e-01,-6.513205170631408691e-01,-4.960597455501556396e-01,-3.452701270580291748e-01,-3.037807345390319824e-01,-9.094069898128509521e-02,-7.567483931779861450e-02,-1.279517859220504761e-01,-7.832179218530654907e-02,-2.105126529932022095e-01,-3.758293986320495605e-01,-2.317204922437667847e-01,-6.898289429955184460e-04,3.401652723550796509e-02,1.344813406467437744e-01,7.791770994663238525e-02,4.799465090036392212e-02,-3.771211579442024231e-02,6.367317866533994675e-03,-1.524906754493713379e-01,-2.009475231170654297e-01,5.494486913084983826e-02,-2.093338370323181152e-01,-2.848426699638366699e-01,-2.176781445741653442e-01,-8.788429200649261475e-02,1.027708221226930618e-02,2.334768511354923248e-02,6.012792885303497314e-02,1.386326700448989868e-01,1.507910937070846558e-01,6.250169873237609863e-02,1.116238906979560852e-02,5.547545384615659714e-03,5.263790488243103027e-02,-9.552379697561264038e-02,-3.543904125690460205e-01,-2.487075775861740112e-01,-8.596260100603103638e-02,7.335098925977945328e-03,7.248996943235397339e-02,5.444430187344551086e-02,7.602740079164505005e-02,-9.023903310298919678e-02,-1.192126870155334473e-01,6.959459185600280762e-02,8.654709905385971069e-02,7.694274187088012695e-02,9.655316174030303955e-02,8.621454983949661255e-02,-2.376811802387237549e-01,-3.973045349121093750e-01,7.364874333143234253e-02,1.081032380461692810e-01,1.290487200021743774e-01,1.397248506546020508e-01,4.774416983127593994e-02,-6.489182263612747192e-02,-1.717726886272430420e-01,-8.731543086469173431e-03,8.298233151435852051e-02,1.157726198434829712e-01,1.085054036229848862e-02,-4.516427591443061829e-02,-3.331427574157714844e-01,-1.873280853033065796e-01,-2.950404770672321320e-02,-6.026902049779891968e-02,-3.625773265957832336e-02,-1.309519708156585693e-01,1.766802519559860229e-01,1.163944303989410400e-01,-2.123330347239971161e-02,-9.428212046623229980e-02,1.198060214519500732e-01,1.760410219430923462e-01,2.031168788671493530e-01,8.802165836095809937e-02,-2.563022375106811523e-01,-2.306190580129623413e-01,-2.983822822570800781e-01,-3.154991269111633301e-01,-2.328060865402221680e-01,-7.709577679634094238e-02,1.674784421920776367e-01,1.573576480150222778e-01,1.961323805153369904e-02,-9.784554690122604370e-02,-2.904103398323059082e-01,-3.734350502490997314e-01,-1.655928939580917358e-01,-2.790869474411010742e-01,-1.140892878174781799e-01,-1.325946748256683350e-01,-2.428154647350311279e-01,-1.454601734876632690e-01,-2.141761966049671173e-02,3.903620690107345581e-02,1.822574436664581299e-01,-4.626905079931020737e-03,-2.255053818225860596e-02,-1.768450140953063965e-01,-2.296502888202667236e-01,-1.826449483633041382e-01,3.676985157653689384e-03,-6.520096659660339355e-01,-1.191115975379943848e-01,-6.327645182609558105e-01,-2.077026367187500000e-01,5.790565907955169678e-02,1.291666924953460693e-01,1.674957722425460815e-01,9.380351006984710693e-02,-8.453169465065002441e-02,-4.237201064825057983e-02,-3.898015944287180901e-03,-1.961378194391727448e-02,-4.014132544398307800e-02,-9.250252693891525269e-02,-6.940585374832153320e-01,-1.917661577463150024e-01,-5.813018083572387695e-01,-9.139876812696456909e-02,2.515748701989650726e-02,7.429338991641998291e-02,-2.994704991579055786e-02,-6.155471131205558777e-02,1.716729893814772367e-04,-5.793639272451400757e-02,-4.005364328622817993e-02,-4.937608260661363602e-03,1.211469098925590515e-01,-1.564219743013381958e-01,-3.777957856655120850e-01,-2.258039712905883789e-01,-4.260020554065704346e-01,-2.553327381610870361e-01,-4.881635680794715881e-02,-6.481780111789703369e-02,-4.905521497130393982e-02,1.660367399454116821e-01,1.633862257003784180e-01,1.255089342594146729e-01,7.991105318069458008e-02,-1.232396811246871948e-02,-3.067164681851863861e-02,-2.654589116573333740e-01,-4.130614697933197021e-01,-1.584544181823730469e-01,-1.443462222814559937e-01,-5.350179672241210938e-01,-3.181068003177642822e-01,-6.895732134580612183e-02,-1.431698072701692581e-02,4.737873375415802002e-02,9.946933388710021973e-02,1.589299440383911133e-01,8.949411660432815552e-02,1.524009108543395996e-01,-1.970513761043548584e-01,-3.075689077377319336e-01,-7.302574813365936279e-02,-1.092430800199508667e-01,-6.214477866888046265e-02,-3.769156336784362793e-01,-1.959975659847259521e-01,-3.039430975914001465e-01,-3.595517277717590332e-01,-3.641416728496551514e-01,-3.570457398891448975e-01,-3.010659813880920410e-01,-1.702970564365386963e-01,-2.796986103057861328e-01,-3.188849985599517822e-01,-1.814838498830795288e-01,-4.716675728559494019e-02
-1.400592625141143799e-01,-4.874083027243614197e-02,8.658713661134243011e-03,-1.219443827867507935e-01,-2.043325006961822510e-01,-8.258333802223205566e-02,-3.813584744930267334e-01,-3.029226660728454590e-01,-1.778791844844818115e-01,-2.815333306789398193e-01,-8.991581201553344727e-02,-1.143302246928215027e-01,3.534501418471336365e-02,-7.589205633848905563e-03,-3.000848367810249329e-02,-6.276354193687438965e-02,-1.440337449312210083e-01,-2.891220152378082275e-01,-3.031294941902160645e-01,-5.407805442810058594e-01,-7.977715134620666504e-01,-8.634710907936096191e-01,-7.684751152992248535e-01,-4.279766976833343506e-01,-4.242135882377624512e-01,-4.279031753540039062e-01,-3.318611681461334229e-01,-1.322807818651199341e-01,-1.829854026436805725e-02,-1.131246238946914673e-01,-2.245918065309524536e-01,-7.882898449897766113e-01,-6.966880559921264648e-01,-4.412133693695068359e-01,-2.777489721775054932e-01,-4.223135709762573242e-01,-5.365613102912902832e-01,-4.850818216800689697e-01,-3.309743702411651611e-01,-5.742831230163574219e-01,-8.210092782974243164e-01,-5.022976398468017578e-01,-6.376847624778747559e-03,-1.567664295434951782e-01,-7.152419090270996094e-01,-3.685072362422943115e-01,-1.323663592338562012e-01,2.231703884899616241e-02,9.833220392465591431e-02,2.157733589410781860e-01,2.356665879487991333e-01,1.638044253922998905e-03,-8.943476527929306030e-02,-2.465748190879821777e-01,-4.822875857353210449e-01,-5.291728973388671875e-01,-2.477524280548095703e-01,-5.927153229713439941e-01,-3.846940100193023682e-01,-1.205790415406227112e-01,-9.906068444252014160e-02,-4.699467495083808899e-02,1.252792328596115112e-01,2.146898359060287476e-01,9.618134051561355591e-02,-2.174487896263599396e-02,-1.332767158746719360e-01,-2.126054614782333374e-01,-4.444792270660400391e-01,-3.533964157104492188e-01,-1.858290582895278931e-01,-5.009776353836059570e-01,-9.195853024721145630e-02,1.248059421777725220e-01,1.050518304109573364e-01,1.407885402441024780e-01,-5.579446256160736084e-02,-2.009789496660232544e-01,-4.082266986370086670e-02,3.643899038434028625e-02,-1.646241173148155212e-02,-7.637393474578857422e-02,-4.346928298473358154e-01,-4.644249379634857178e-01,-2.345303893089294434e-01,-4.568928480148315430e-01,2.596193552017211914e-01,2.141411155462265015e-01,2.009313106536865234e-01,1.210350096225738525e-01,-6.459498405456542969e-02,1.229029074311256409e-01,2.276830971240997314e-01,2.609001398086547852e-01,2.552064061164855957e-01,1.373604089021682739e-01,-4.631794989109039307e-01,-5.362970232963562012e-01,-1.448172032833099365e-01,-2.859564125537872314e-01,6.302916258573532104e-02,4.702705889940261841e-02,4.147287085652351379e-02,-9.522879868745803833e-02,5.268324632197618484e-03,-1.462942082434892654e-02,2.213316410779953003e-01,1.714702695608139038e-01,5.049129202961921692e-02,-1.088251844048500061e-01,-6.996455788612365723e-01,-3.246387839317321777e-01,4.695452749729156494e-02,-2.209846228361129761e-01,-4.782664775848388672e-02,-6.530405580997467041e-02,1.575639587827026844e-03,8.085303753614425659e-02,-8.497093617916107178e-02,-2.552027814090251923e-02,2.220477461814880371e-01,2.662500366568565369e-02,-1.739408448338508606e-02,-1.744391620159149170e-01,-7.330326437950134277e-01,-3.978569805622100830e-01,2.647321298718452454e-02,-2.897316515445709229e-01,-3.202084600925445557e-01,-2.109169960021972656e-02,-1.579308323562145233e-02,7.915501482784748077e-03,-1.267390400171279907e-01,-5.589554086327552795e-02,-4.121015220880508423e-02,-3.907712921500205994e-02,1.587359048426151276e-02,-3.500611186027526855e-01,-5.363999009132385254e-01,-7.832957804203033447e-02,-2.897765301167964935e-02,-3.949739933013916016e-01,-2.034141421318054199e-01,-2.658125758171081543e-01,-2.527709901332855225e-01,-3.465666770935058594e-01,-2.601134777069091797e-01,-1.265656948089599609e-01,-9.560918807983398438e-02,-1.427457034587860107e-01,-1.884303390979766846e-01,-2.438089847564697266e-01,4.828154668211936951e-02,-1.792726516723632812e-01,5.212171748280525208e-02,-1.784543544054031372e-01,-2.593432664871215820e-01,-6.786882132291793823e-02,4.384073615074157715e-02,-3.597429022192955017e-02,-9.594064205884933472e-02,-1.324592679738998413e-01,-1.594938784837722778e-01,-1.688634753227233887e-01,-1.381772309541702271e-01,3.102112561464309692e-02,1.009184271097183228e-01,-2.219043076038360596e-01,-2.687219530344009399e-02,-2.116309851408004761e-01,1.016692724078893661e-02,1.309491544961929321e-01,1.133701503276824951e-01,7.396908104419708252e-02,5.913922563195228577e-02,-8.037448674440383911e-02,5.802203714847564697e-02,9.840311110019683838e-02,2.479679435491561890e-01,2.901999652385711670e-01,-1.006447896361351013e-01,-5.165923014283180237e-02,1.028932332992553711e-01,-9.842188656330108643e-02,2.833327054977416992e-01,2.988941669464111328e-01,1.072090864181518555e-01,1.148070022463798523e-01,1.691636145114898682e-01,1.774532049894332886e-01,1.945467665791511536e-02,2.995491214096546173e-02,9.175134450197219849e-02,-8.664332330226898193e-02,-1.682153791189193726e-01,-5.295445770025253296e-02
